digraph Tree {
node [shape=box, style="filled, rounded", color="black", fontname=helvetica] ;
edge [fontname=helvetica] ;
0 [label="petal length (cm) <= 2.6\ngini = 0.67\nsamples = 92\nvalue = [47, 49, 54]\nclass = virginica", fillcolor="#f9f5fe"] ;
1 [label="gini = 0.0\nsamples = 29\nvalue = [47, 0, 0]\nclass = setosa", fillcolor="#e58139"] ;
0 -> 1 [labeldistance=2.5, labelangle=45, headlabel="True"] ;
2 [label="petal length (cm) <= 4.95\ngini = 0.5\nsamples = 63\nvalue = [0, 49, 54]\nclass = virginica", fillcolor="#f3edfd"] ;
0 -> 2 [labeldistance=2.5, labelangle=-45, headlabel="False"] ;
3 [label="petal length (cm) <= 4.75\ngini = 0.15\nsamples = 29\nvalue = [0, 46, 4]\nclass = versicolor", fillcolor="#4ae78c"] ;
2 -> 3 ;
4 [label="gini = 0.0\nsamples = 22\nvalue = [0, 37, 0]\nclass = versicolor", fillcolor="#39e581"] ;
3 -> 4 ;
5 [label="sepal width (cm) <= 3.05\ngini = 0.43\nsamples = 7\nvalue = [0, 9, 4]\nclass = versicolor", fillcolor="#91f1b9"] ;
3 -> 5 ;
6 [label="sepal width (cm) <= 2.9\ngini = 0.49\nsamples = 6\nvalue = [0, 5, 4]\nclass = versicolor", fillcolor="#d7fae6"] ;
5 -> 6 ;
7 [label="petal width (cm) <= 1.65\ngini = 0.41\nsamples = 4\nvalue = [0, 5, 2]\nclass = versicolor", fillcolor="#88efb3"] ;
6 -> 7 ;
8 [label="gini = 0.0\nsamples = 2\nvalue = [0, 5, 0]\nclass = versicolor", fillcolor="#39e581"] ;
7 -> 8 ;
9 [label="gini = 0.0\nsamples = 2\nvalue = [0, 0, 2]\nclass = virginica", fillcolor="#8139e5"] ;
7 -> 9 ;
10 [label="gini = 0.0\nsamples = 2\nvalue = [0, 0, 2]\nclass = virginica", fillcolor="#8139e5"] ;
6 -> 10 ;
11 [label="gini = 0.0\nsamples = 1\nvalue = [0, 4, 0]\nclass = versicolor", fillcolor="#39e581"] ;
5 -> 11 ;
12 [label="petal length (cm) <= 5.05\ngini = 0.11\nsamples = 34\nvalue = [0, 3, 50]\nclass = virginica", fillcolor="#8945e7"] ;
2 -> 12 ;
13 [label="sepal length (cm) <= 6.35\ngini = 0.48\nsamples = 3\nvalue = [0, 2, 3]\nclass = virginica", fillcolor="#d5bdf6"] ;
12 -> 13 ;
14 [label="gini = 0.0\nsamples = 2\nvalue = [0, 0, 3]\nclass = virginica", fillcolor="#8139e5"] ;
13 -> 14 ;
15 [label="gini = 0.0\nsamples = 1\nvalue = [0, 2, 0]\nclass = versicolor", fillcolor="#39e581"] ;
13 -> 15 ;
16 [label="petal width (cm) <= 1.7\ngini = 0.04\nsamples = 31\nvalue = [0, 1, 47]\nclass = virginica", fillcolor="#843de6"] ;
12 -> 16 ;
17 [label="sepal length (cm) <= 6.15\ngini = 0.38\nsamples = 3\nvalue = [0, 1, 3]\nclass = virginica", fillcolor="#ab7bee"] ;
16 -> 17 ;
18 [label="gini = 0.0\nsamples = 1\nvalue = [0, 1, 0]\nclass = versicolor", fillcolor="#39e581"] ;
17 -> 18 ;
19 [label="gini = 0.0\nsamples = 2\nvalue = [0, 0, 3]\nclass = virginica", fillcolor="#8139e5"] ;
17 -> 19 ;
20 [label="gini = 0.0\nsamples = 28\nvalue = [0, 0, 44]\nclass = virginica", fillcolor="#8139e5"] ;
16 -> 20 ;
}